<?xml version="1.0"?>
<opencv_storage>
<cascade>
  <stageType>BOOST</stageType>
  <featureType>HAAR</featureType>
  <height>24</height>
  <width>24</width>
  <stageParams>
    <boostType>GAB</boostType>
    <minHitRate>9.9500000476837158e-01</minHitRate>
    <maxFalseAlarm>5.0000000000000000e-01</maxFalseAlarm>
    <weightTrimRate>9.4999998807907104e-01</weightTrimRate>
    <maxDepth>1</maxDepth>
    <maxWeakCount>100</maxWeakCount></stageParams>
  <featureParams>
    <maxCatCount>0</maxCatCount>
    <featSize>1</featSize>
    <mode>BASIC</mode></featureParams>
  <stageNum>15</stageNum>
  <stages>
    <!-- stage 0 -->
    <_>
      <maxWeakCount>2</maxWeakCount>
      <stageThreshold>-2.0035943388938904e-01</stageThreshold>
      <weakClassifiers>
        <_>
          <internalNodes>
            0 -1 18 -3.3099257946014404e-01</internalNodes>
          <leafValues>
            6.8612438440322876e-01 -9.7720795869827271e-01</leafValues></_>
        <_>
          <internalNodes>
            0 -1 1 1.2095300853252411e-01</internalNodes>
          <leafValues>
            -8.8648384809494019e-01 8.5994899272918701e-01</leafValues></_></weakClassifiers></_>
    <!-- stage 1 -->
    <_>
      <maxWeakCount>2</maxWeakCount>
      <stageThreshold>-3.3224987983703613e-01</stageThreshold>
      <weakClassifiers>
        <_>
          <internalNodes>
            0 -1 15 3.7919029593467712e-02</internalNodes>
          <leafValues>
            -8.5135138034820557e-01 7.3059362173080444e-01</leafValues></_>
        <_>
          <internalNodes>
            0 -1 47 -7.9731908044777811e-05</internalNodes>
          <leafValues>
            5.1910144090652466e-01 -9.6682065725326538e-01</leafValues></_></weakClassifiers></_>
    <!-- stage 2 -->
    <_>
      <maxWeakCount>4</maxWeakCount>
      <stageThreshold>-7.2640383243560791e-01</stageThreshold>
      <weakClassifiers>
        <_>
          <internalNodes>
            0 -1 56 2.7685530483722687e-02</internalNodes>
          <leafValues>
            -8.0477887392044067e-01 7.0228093862533569e-01</leafValues></_>
        <_>
          <internalNodes>
            0 -1 24 -1.9501478163874708e-05</internalNodes>
          <leafValues>
            4.7168192267417908e-01 -9.3957835435867310e-01</leafValues></_>
        <_>
          <internalNodes>
            0 -1 5 2.4512851610779762e-02</internalNodes>
          <leafValues>
            -9.1229313611984253e-01 4.7078901529312134e-01</leafValues></_>
        <_>
          <internalNodes>
            0 -1 57 -2.8977341949939728e-02</internalNodes>
          <leafValues>
            5.4716432094573975e-01 -7.5123107433319092e-01</leafValues></_></weakClassifiers></_>
    <!-- stage 3 -->
    <_>
      <maxWeakCount>2</maxWeakCount>
      <stageThreshold>-5.6144934892654419e-01</stageThreshold>
      <weakClassifiers>
        <_>
          <internalNodes>
            0 -1 21 -1.8967584765050560e-05</internalNodes>
          <leafValues>
            2.5521206855773926e-01 -9.6025550365447998e-01</leafValues></_>
        <_>
          <internalNodes>
            0 -1 11 8.3086974918842316e-03</internalNodes>
          <leafValues>
            -8.1666141748428345e-01 5.3164362907409668e-01</leafValues></_></weakClassifiers></_>
    <!-- stage 4 -->
    <_>
      <maxWeakCount>2</maxWeakCount>
      <stageThreshold>-4.7144502401351929e-01</stageThreshold>
      <weakClassifiers>
        <_>
          <internalNodes>
            0 -1 2 3.4538879990577698e-02</internalNodes>
          <leafValues>
            -7.8265523910522461e-01 4.9785408377647400e-01</leafValues></_>
        <_>
          <internalNodes>
            0 -1 46 -4.0804708987707272e-05</internalNodes>
          <leafValues>
            3.6584672331809998e-01 -9.6929907798767090e-01</leafValues></_></weakClassifiers></_>
    <!-- stage 5 -->
    <_>
      <maxWeakCount>4</maxWeakCount>
      <stageThreshold>-7.6695287227630615e-01</stageThreshold>
      <weakClassifiers>
        <_>
          <internalNodes>
            0 -1 49 1.4181599952280521e-02</internalNodes>
          <leafValues>
            -7.8936392068862915e-01 5.8503401279449463e-01</leafValues></_>
        <_>
          <internalNodes>
            0 -1 51 -3.1685993075370789e-02</internalNodes>
          <leafValues>
            3.5861310362815857e-01 -9.4228971004486084e-01</leafValues></_>
        <_>
          <internalNodes>
            0 -1 13 2.6603150181472301e-03</internalNodes>
          <leafValues>
            -6.9550758600234985e-01 5.2879607677459717e-01</leafValues></_>
        <_>
          <internalNodes>
            0 -1 20 3.3425334549974650e-05</internalNodes>
          <leafValues>
            -8.6499816179275513e-01 4.7612288594245911e-01</leafValues></_></weakClassifiers></_>
    <!-- stage 6 -->
    <_>
      <maxWeakCount>4</maxWeakCount>
      <stageThreshold>-8.4817737340927124e-01</stageThreshold>
      <weakClassifiers>
        <_>
          <internalNodes>
            0 -1 59 -2.3465273901820183e-02</internalNodes>
          <leafValues>
            3.8243627548217773e-01 -8.0585873126983643e-01</leafValues></_>
        <_>
          <internalNodes>
            0 -1 45 3.2127307349583134e-05</internalNodes>
          <leafValues>
            -7.8652501106262207e-01 4.6544733643531799e-01</leafValues></_>
        <_>
          <internalNodes>
            0 -1 30 1.4872653409838676e-02</internalNodes>
          <leafValues>
            -8.2010507583618164e-01 4.0085765719413757e-01</leafValues></_>
        <_>
          <internalNodes>
            0 -1 23 -1.8848768377210945e-05</internalNodes>
          <leafValues>
            4.2153009772300720e-01 -8.4494626522064209e-01</leafValues></_></weakClassifiers></_>
    <!-- stage 7 -->
    <_>
      <maxWeakCount>5</maxWeakCount>
      <stageThreshold>-1.4795155525207520e+00</stageThreshold>
      <weakClassifiers>
        <_>
          <internalNodes>
            0 -1 0 8.9190555736422539e-03</internalNodes>
          <leafValues>
            -6.5373963117599487e-01 6.5930598974227905e-01</leafValues></_>
        <_>
          <internalNodes>
            0 -1 43 -4.5066594611853361e-04</internalNodes>
          <leafValues>
            4.8731338977813721e-01 -7.6109474897384644e-01</leafValues></_>
        <_>
          <internalNodes>
            0 -1 33 3.0533384531736374e-02</internalNodes>
          <leafValues>
            -8.1739056110382080e-01 4.0205603837966919e-01</leafValues></_>
        <_>
          <internalNodes>
            0 -1 39 1.9562892703106627e-05</internalNodes>
          <leafValues>
            -7.9080241918563843e-01 3.8642323017120361e-01</leafValues></_>
        <_>
          <internalNodes>
            0 -1 42 -1.2150967493653297e-02</internalNodes>
          <leafValues>
            3.2406517863273621e-01 -9.5483851432800293e-01</leafValues></_></weakClassifiers></_>
    <!-- stage 8 -->
    <_>
      <maxWeakCount>4</maxWeakCount>
      <stageThreshold>-8.4267234802246094e-01</stageThreshold>
      <weakClassifiers>
        <_>
          <internalNodes>
            0 -1 28 -7.2675682604312897e-03</internalNodes>
          <leafValues>
            3.5203620791435242e-01 -8.1828910112380981e-01</leafValues></_>
        <_>
          <internalNodes>
            0 -1 40 7.6892815530300140e-02</internalNodes>
          <leafValues>
            -8.8699430227279663e-01 3.6273163557052612e-01</leafValues></_>
        <_>
          <internalNodes>
            0 -1 9 -1.1864157393574715e-02</internalNodes>
          <leafValues>
            4.8788547515869141e-01 -6.3056457042694092e-01</leafValues></_>
        <_>
          <internalNodes>
            0 -1 19 -1.1841846257448196e-01</internalNodes>
          <leafValues>
            4.4780281186103821e-01 -7.9559969902038574e-01</leafValues></_></weakClassifiers></_>
    <!-- stage 9 -->
    <_>
      <maxWeakCount>6</maxWeakCount>
      <stageThreshold>-1.7514252662658691e+00</stageThreshold>
      <weakClassifiers>
        <_>
          <internalNodes>
            0 -1 17 5.5041953921318054e-02</internalNodes>
          <leafValues>
            -7.1428573131561279e-01 3.6197635531425476e-01</leafValues></_>
        <_>
          <internalNodes>
            0 -1 37 1.8639504560269415e-05</internalNodes>
          <leafValues>
            -8.1424707174301147e-01 3.4245100617408752e-01</leafValues></_>
        <_>
          <internalNodes>
            0 -1 55 1.9075345335295424e-05</internalNodes>
          <leafValues>
            -5.4326051473617554e-01 5.0763821601867676e-01</leafValues></_>
        <_>
          <internalNodes>
            0 -1 7 6.7046545445919037e-03</internalNodes>
          <leafValues>
            -4.8103767633438110e-01 5.5334895849227905e-01</leafValues></_>
        <_>
          <internalNodes>
            0 -1 35 -1.8388760508969426e-05</internalNodes>
          <leafValues>
            4.3575951457023621e-01 -7.4655628204345703e-01</leafValues></_>
        <_>
          <internalNodes>
            0 -1 31 9.0658657252788544e-02</internalNodes>
          <leafValues>
            -7.2818940877914429e-01 3.9126387238502502e-01</leafValues></_></weakClassifiers></_>
    <!-- stage 10 -->
    <_>
      <maxWeakCount>5</maxWeakCount>
      <stageThreshold>-1.3208266496658325e+00</stageThreshold>
      <weakClassifiers>
        <_>
          <internalNodes>
            0 -1 12 2.5813066959381104e-01</internalNodes>
          <leafValues>
            -8.2635849714279175e-01 2.7105921506881714e-01</leafValues></_>
        <_>
          <internalNodes>
            0 -1 53 4.2844683048315346e-04</internalNodes>
          <leafValues>
            -6.6983056068420410e-01 4.3684858083724976e-01</leafValues></_>
        <_>
          <internalNodes>
            0 -1 38 -1.8569537132862024e-05</internalNodes>
          <leafValues>
            2.5557357072830200e-01 -9.4857496023178101e-01</leafValues></_>
        <_>
          <internalNodes>
            0 -1 3 -6.7605827935039997e-03</internalNodes>
          <leafValues>
            4.3103009462356567e-01 -6.7771989107131958e-01</leafValues></_>
        <_>
          <internalNodes>
            0 -1 6 3.1301437411457300e-03</internalNodes>
          <leafValues>
            -4.3143269419670105e-01 7.0423960685729980e-01</leafValues></_></weakClassifiers></_>
    <!-- stage 11 -->
    <_>
      <maxWeakCount>5</maxWeakCount>
      <stageThreshold>-1.0440241098403931e+00</stageThreshold>
      <weakClassifiers>
        <_>
          <internalNodes>
            0 -1 52 -1.1513017117977142e-02</internalNodes>
          <leafValues>
            5.6336259841918945e-01 -7.2241640090942383e-01</leafValues></_>
        <_>
          <internalNodes>
            0 -1 58 1.8446946516633034e-02</internalNodes>
          <leafValues>
            -4.8925173282623291e-01 6.2879276275634766e-01</leafValues></_>
        <_>
          <internalNodes>
            0 -1 34 -2.5631706230342388e-03</internalNodes>
          <leafValues>
            3.0594787001609802e-01 -9.2251855134963989e-01</leafValues></_>
        <_>
          <internalNodes>
            0 -1 16 -2.8719878755509853e-03</internalNodes>
          <leafValues>
            3.1152254343032837e-01 -8.0652940273284912e-01</leafValues></_>
        <_>
          <internalNodes>
            0 -1 4 7.0470385253429413e-03</internalNodes>
          <leafValues>
            -4.4982638955116272e-01 6.9940924644470215e-01</leafValues></_></weakClassifiers></_>
    <!-- stage 12 -->
    <_>
      <maxWeakCount>5</maxWeakCount>
      <stageThreshold>-1.3306763172149658e+00</stageThreshold>
      <weakClassifiers>
        <_>
          <internalNodes>
            0 -1 32 8.6593907326459885e-03</internalNodes>
          <leafValues>
            -5.7180154323577881e-01 6.2948209047317505e-01</leafValues></_>
        <_>
          <internalNodes>
            0 -1 26 -1.7738015230861492e-05</internalNodes>
          <leafValues>
            2.4941077828407288e-01 -9.2639231681823730e-01</leafValues></_>
        <_>
          <internalNodes>
            0 -1 41 5.9454683214426041e-03</internalNodes>
          <leafValues>
            -7.4810379743576050e-01 3.2048800587654114e-01</leafValues></_>
        <_>
          <internalNodes>
            0 -1 48 -1.0644914582371712e-03</internalNodes>
          <leafValues>
            3.6475816369056702e-01 -6.8842691183090210e-01</leafValues></_>
        <_>
          <internalNodes>
            0 -1 8 4.5246765017509460e-02</internalNodes>
          <leafValues>
            -5.7048797607421875e-01 4.2824515700340271e-01</leafValues></_></weakClassifiers></_>
    <!-- stage 13 -->
    <_>
      <maxWeakCount>6</maxWeakCount>
      <stageThreshold>-1.2226161956787109e+00</stageThreshold>
      <weakClassifiers>
        <_>
          <internalNodes>
            0 -1 60 -1.1124292388558388e-02</internalNodes>
          <leafValues>
            3.7592136859893799e-01 -6.5659618377685547e-01</leafValues></_>
        <_>
          <internalNodes>
            0 -1 10 4.9678543582558632e-03</internalNodes>
          <leafValues>
            -4.3991351127624512e-01 6.0569638013839722e-01</leafValues></_>
        <_>
          <internalNodes>
            0 -1 27 -2.4597354233264923e-02</internalNodes>
          <leafValues>
            3.2574790716171265e-01 -8.9892989397048950e-01</leafValues></_>
        <_>
          <internalNodes>
            0 -1 50 5.6951083242893219e-02</internalNodes>
          <leafValues>
            -8.3592301607131958e-01 2.8344461321830750e-01</leafValues></_>
        <_>
          <internalNodes>
            0 -1 44 2.9851073122699745e-05</internalNodes>
          <leafValues>
            -7.9068464040756226e-01 2.5021982192993164e-01</leafValues></_>
        <_>
          <internalNodes>
            0 -1 25 -2.9557440429925919e-03</internalNodes>
          <leafValues>
            -8.2978600263595581e-01 2.3915900290012360e-01</leafValues></_></weakClassifiers></_>
    <!-- stage 14 -->
    <_>
      <maxWeakCount>5</maxWeakCount>
      <stageThreshold>-1.5005300045013428e+00</stageThreshold>
      <weakClassifiers>
        <_>
          <internalNodes>
            0 -1 29 -3.0154515989124775e-03</internalNodes>
          <leafValues>
            3.9671361446380615e-01 -6.8583160638809204e-01</leafValues></_>
        <_>
          <internalNodes>
            0 -1 14 3.0344221740961075e-02</internalNodes>
          <leafValues>
            -7.1211522817611694e-01 3.3682200312614441e-01</leafValues></_>
        <_>
          <internalNodes>
            0 -1 22 -1.8718739738687873e-05</internalNodes>
          <leafValues>
            3.2342612743377686e-01 -8.6552685499191284e-01</leafValues></_>
        <_>
          <internalNodes>
            0 -1 54 1.0338272899389267e-02</internalNodes>
          <leafValues>
            -5.9870809316635132e-01 4.9537009000778198e-01</leafValues></_>
        <_>
          <internalNodes>
            0 -1 36 -1.7754391592461616e-05</internalNodes>
          <leafValues>
            2.6757362484931946e-01 -9.1990864276885986e-01</leafValues></_></weakClassifiers></_></stages>
  <features>
    <_>
      <rects>
        <_>
          0 1 6 4 -1.</_>
        <_>
          0 1 3 2 2.</_>
        <_>
          3 3 3 2 2.</_></rects>
      <tilted>0</tilted></_>
    <_>
      <rects>
        <_>
          0 1 24 4 -1.</_>
        <_>
          8 1 8 4 3.</_></rects>
      <tilted>0</tilted></_>
    <_>
      <rects>
        <_>
          0 2 8 4 -1.</_>
        <_>
          4 2 4 4 2.</_></rects>
      <tilted>0</tilted></_>
    <_>
      <rects>
        <_>
          0 3 8 8 -1.</_>
        <_>
          0 3 4 4 2.</_>
        <_>
          4 7 4 4 2.</_></rects>
      <tilted>0</tilted></_>
    <_>
      <rects>
        <_>
          0 6 2 13 -1.</_>
        <_>
          1 6 1 13 2.</_></rects>
      <tilted>0</tilted></_>
    <_>
      <rects>
        <_>
          0 9 18 2 -1.</_>
        <_>
          9 9 9 2 2.</_></rects>
      <tilted>0</tilted></_>
    <_>
      <rects>
        <_>
          0 19 6 1 -1.</_>
        <_>
          3 19 3 1 2.</_></rects>
      <tilted>0</tilted></_>
    <_>
      <rects>
        <_>
          0 21 21 1 -1.</_>
        <_>
          7 21 7 1 3.</_></rects>
      <tilted>0</tilted></_>
    <_>
      <rects>
        <_>
          1 1 14 3 -1.</_>
        <_>
          8 1 7 3 2.</_></rects>
      <tilted>0</tilted></_>
    <_>
      <rects>
        <_>
          1 2 8 8 -1.</_>
        <_>
          1 2 4 4 2.</_>
        <_>
          5 6 4 4 2.</_></rects>
      <tilted>0</tilted></_>
    <_>
      <rects>
        <_>
          2 0 4 4 -1.</_>
        <_>
          2 0 2 2 2.</_>
        <_>
          4 2 2 2 2.</_></rects>
      <tilted>0</tilted></_>
    <_>
      <rects>
        <_>
          2 0 17 2 -1.</_>
        <_>
          2 1 17 1 2.</_></rects>
      <tilted>0</tilted></_>
    <_>
      <rects>
        <_>
          2 0 21 18 -1.</_>
        <_>
          2 6 21 6 3.</_></rects>
      <tilted>0</tilted></_>
    <_>
      <rects>
        <_>
          2 2 3 4 -1.</_>
        <_>
          2 4 3 2 2.</_></rects>
      <tilted>0</tilted></_>
    <_>
      <rects>
        <_>
          3 0 5 12 -1.</_>
        <_>
          3 4 5 4 3.</_></rects>
      <tilted>0</tilted></_>
    <_>
      <rects>
        <_>
          3 0 17 4 -1.</_>
        <_>
          3 2 17 2 2.</_></rects>
      <tilted>0</tilted></_>
    <_>
      <rects>
        <_>
          3 9 16 10 -1.</_>
        <_>
          3 9 8 5 2.</_>
        <_>
          11 14 8 5 2.</_></rects>
      <tilted>0</tilted></_>
    <_>
      <rects>
        <_>
          4 0 17 4 -1.</_>
        <_>
          4 2 17 2 2.</_></rects>
      <tilted>0</tilted></_>
    <_>
      <rects>
        <_>
          4 6 18 18 -1.</_>
        <_>
          4 15 18 9 2.</_></rects>
      <tilted>0</tilted></_>
    <_>
      <rects>
        <_>
          4 11 19 10 -1.</_>
        <_>
          4 16 19 5 2.</_></rects>
      <tilted>0</tilted></_>
    <_>
      <rects>
        <_>
          4 15 2 1 -1.</_>
        <_>
          5 15 1 1 2.</_></rects>
      <tilted>0</tilted></_>
    <_>
      <rects>
        <_>
          4 15 1 2 -1.</_>
        <_>
          4 16 1 1 2.</_></rects>
      <tilted>0</tilted></_>
    <_>
      <rects>
        <_>
          4 16 1 2 -1.</_>
        <_>
          4 17 1 1 2.</_></rects>
      <tilted>0</tilted></_>
    <_>
      <rects>
        <_>
          5 9 1 2 -1.</_>
        <_>
          5 10 1 1 2.</_></rects>
      <tilted>0</tilted></_>
    <_>
      <rects>
        <_>
          5 11 1 2 -1.</_>
        <_>
          5 12 1 1 2.</_></rects>
      <tilted>0</tilted></_>
    <_>
      <rects>
        <_>
          5 13 2 4 -1.</_>
        <_>
          5 15 2 2 2.</_></rects>
      <tilted>0</tilted></_>
    <_>
      <rects>
        <_>
          5 14 1 2 -1.</_>
        <_>
          5 15 1 1 2.</_></rects>
      <tilted>0</tilted></_>
    <_>
      <rects>
        <_>
          5 15 9 8 -1.</_>
        <_>
          5 19 9 4 2.</_></rects>
      <tilted>0</tilted></_>
    <_>
      <rects>
        <_>
          5 18 3 6 -1.</_>
        <_>
          5 21 3 3 2.</_></rects>
      <tilted>0</tilted></_>
    <_>
      <rects>
        <_>
          5 22 6 2 -1.</_>
        <_>
          5 23 6 1 2.</_></rects>
      <tilted>0</tilted></_>
    <_>
      <rects>
        <_>
          6 0 12 7 -1.</_>
        <_>
          10 0 4 7 3.</_></rects>
      <tilted>0</tilted></_>
    <_>
      <rects>
        <_>
          6 0 18 9 -1.</_>
        <_>
          12 0 6 9 3.</_></rects>
      <tilted>0</tilted></_>
    <_>
      <rects>
        <_>
          6 0 10 3 -1.</_>
        <_>
          6 1 10 1 3.</_></rects>
      <tilted>0</tilted></_>
    <_>
      <rects>
        <_>
          6 1 16 10 -1.</_>
        <_>
          6 1 8 5 2.</_>
        <_>
          14 6 8 5 2.</_></rects>
      <tilted>0</tilted></_>
    <_>
      <rects>
        <_>
          6 9 2 6 -1.</_>
        <_>
          6 12 2 3 2.</_></rects>
      <tilted>0</tilted></_>
    <_>
      <rects>
        <_>
          7 7 1 2 -1.</_>
        <_>
          7 8 1 1 2.</_></rects>
      <tilted>0</tilted></_>
    <_>
      <rects>
        <_>
          7 14 1 2 -1.</_>
        <_>
          7 15 1 1 2.</_></rects>
      <tilted>0</tilted></_>
    <_>
      <rects>
        <_>
          7 19 2 1 -1.</_>
        <_>
          8 19 1 1 2.</_></rects>
      <tilted>0</tilted></_>
    <_>
      <rects>
        <_>
          8 17 1 2 -1.</_>
        <_>
          8 18 1 1 2.</_></rects>
      <tilted>0</tilted></_>
    <_>
      <rects>
        <_>
          8 19 2 1 -1.</_>
        <_>
          9 19 1 1 2.</_></rects>
      <tilted>0</tilted></_>
    <_>
      <rects>
        <_>
          9 1 15 19 -1.</_>
        <_>
          14 1 5 19 3.</_></rects>
      <tilted>0</tilted></_>
    <_>
      <rects>
        <_>
          9 1 13 6 -1.</_>
        <_>
          9 3 13 2 3.</_></rects>
      <tilted>0</tilted></_>
    <_>
      <rects>
        <_>
          9 6 2 12 -1.</_>
        <_>
          9 12 2 6 2.</_></rects>
      <tilted>0</tilted></_>
    <_>
      <rects>
        <_>
          9 22 2 2 -1.</_>
        <_>
          9 23 2 1 2.</_></rects>
      <tilted>0</tilted></_>
    <_>
      <rects>
        <_>
          10 18 2 1 -1.</_>
        <_>
          11 18 1 1 2.</_></rects>
      <tilted>0</tilted></_>
    <_>
      <rects>
        <_>
          11 19 2 1 -1.</_>
        <_>
          12 19 1 1 2.</_></rects>
      <tilted>0</tilted></_>
    <_>
      <rects>
        <_>
          11 19 1 2 -1.</_>
        <_>
          11 20 1 1 2.</_></rects>
      <tilted>0</tilted></_>
    <_>
      <rects>
        <_>
          11 20 1 2 -1.</_>
        <_>
          11 21 1 1 2.</_></rects>
      <tilted>0</tilted></_>
    <_>
      <rects>
        <_>
          14 21 4 2 -1.</_>
        <_>
          14 22 4 1 2.</_></rects>
      <tilted>0</tilted></_>
    <_>
      <rects>
        <_>
          15 1 6 8 -1.</_>
        <_>
          15 1 3 4 2.</_>
        <_>
          18 5 3 4 2.</_></rects>
      <tilted>0</tilted></_>
    <_>
      <rects>
        <_>
          15 2 8 15 -1.</_>
        <_>
          15 7 8 5 3.</_></rects>
      <tilted>0</tilted></_>
    <_>
      <rects>
        <_>
          15 9 5 10 -1.</_>
        <_>
          15 14 5 5 2.</_></rects>
      <tilted>0</tilted></_>
    <_>
      <rects>
        <_>
          16 0 8 4 -1.</_>
        <_>
          16 0 4 2 2.</_>
        <_>
          20 2 4 2 2.</_></rects>
      <tilted>0</tilted></_>
    <_>
      <rects>
        <_>
          16 6 4 3 -1.</_>
        <_>
          18 6 2 3 2.</_></rects>
      <tilted>0</tilted></_>
    <_>
      <rects>
        <_>
          17 3 6 7 -1.</_>
        <_>
          19 3 2 7 3.</_></rects>
      <tilted>0</tilted></_>
    <_>
      <rects>
        <_>
          17 6 2 1 -1.</_>
        <_>
          18 6 1 1 2.</_></rects>
      <tilted>0</tilted></_>
    <_>
      <rects>
        <_>
          18 0 3 8 -1.</_>
        <_>
          18 4 3 4 2.</_></rects>
      <tilted>0</tilted></_>
    <_>
      <rects>
        <_>
          18 1 6 12 -1.</_>
        <_>
          21 1 3 12 2.</_></rects>
      <tilted>0</tilted></_>
    <_>
      <rects>
        <_>
          18 4 6 13 -1.</_>
        <_>
          20 4 2 13 3.</_></rects>
      <tilted>0</tilted></_>
    <_>
      <rects>
        <_>
          20 3 4 10 -1.</_>
        <_>
          22 3 2 10 2.</_></rects>
      <tilted>0</tilted></_>
    <_>
      <rects>
        <_>
          21 4 2 16 -1.</_>
        <_>
          22 4 1 16 2.</_></rects>
      <tilted>0</tilted></_></features></cascade>
</opencv_storage>
